{
    "metadata": {
        "input_labels": [
            "i1",
            "i2"
        ],
        "output_labels": [
            "o1",
            "o2"
        ],
        "layers": [
            10,
            2
        ],
        "activation_function": "relu",
        "min_values": {
            "i1": -9.999809064421258,
            "i2": -9.99992272484902,
            "o1": -3.096831470758895,
            "o2": -10.908755620000022
        },
        "max_values": {
            "i1": 9.999811263333656,
            "i2": 9.99949135381863,
            "o1": 10.904889373422316,
            "o2": 3.0709116686893188
        }
    },
    "weights": [
        [
            [
                0.9698558508317824,
                2.653892404937049,
                0.22194419826038778
            ],
            [
                0.38793031605594824,
                0.5970181005374383,
                -1.662317663058292
            ],
            [
                1.7549076149188323,
                1.351988196797172,
                -0.0965696056685879
            ],
            [
                -0.06569832124247023,
                0.8886388232696472,
                -1.4627185919108154
            ],
            [
                -0.39166349208632834,
                -1.0473553924949717,
                2.279943150178846
            ],
            [
                0.47155704294340867,
                0.17557696416267513,
                1.4380462751208811
            ],
            [
                0.8524336921042379,
                0.6150293793089328,
                0.47743717003421
            ],
            [
                2.193656610613475,
                0.00045096343687042685,
                -1.092433828695337
            ],
            [
                -0.5914998562773349,
                -1.2767201898203977,
                -1.5730963016226127
            ],
            [
                0.23560386010881798,
                1.0455505762809967,
                0.5291032939284229
            ]
        ],
        [
            [
                0.028195232042737734,
                -0.537545525496466,
                -0.3911234437040649,
                -2.006418950703556,
                0.34080854054616205,
                0.40705704862009895,
                -1.1339819561591318,
                0.5268274105337792,
                -0.5180796977990603,
                1.154659941912237,
                -0.452641671998346
            ],
            [
                -0.30939714222584136,
                -1.675549889507968,
                -0.1696917927520695,
                1.286870115488809,
                0.3663146855500266,
                -0.8397065292004394,
                0.833287104702041,
                -0.5279252634683811,
                -0.10597803409130017,
                1.2419379692596995,
                0.06302090942048343
            ]
        ]
    ]
}